8.264745073344580417e-01
-7.086846666003850936e-01
6.775759897052859859e-01
-3.982154139356146594e-01
-2.397055984887224156e-01
-2.162823001320292704e+00
-3.135731224186916188e-01
7.302025593312336804e-01
-2.404124525028735970e+00
3.075734011938616730e-01
-5.298861593685308957e-01
-5.599009810053597741e-02
1.559875437550597432e-01
-2.007468073280088694e-02
-7.751804926852985389e-01
4.718260482037726966e+00
8.948967775527538748e-01
3.123754104910343887e+00
-1.445857550695278052e-03
4.639047503136847078e-02
1.802070056004064780e-01
-7.892711594258159380e-01
-9.336281273843630157e-02
1.245541842338222960e+00
-1.390504417206943621e+00
-5.481062849285728289e-01
-2.295406439106937278e-03
-3.803651947697458180e+00
-9.284878246406177427e-01
8.018455262576510423e-01
1.354527923194050743e-01
7.082937791900792979e-01
1.202470373186375951e+00
-6.835640885803007549e+00
-3.232374497621285592e+00
-2.673147064030553466e+00
7.536622483088522007e-01
9.421437825065938076e-01
5.883606645928866063e-01
-1.859180538419966444e+00
1.888000586514839430e-01
-1.326411061515608558e-01
-5.118412887229564778e-02
6.901050505576936112e-02
-9.835065212418330205e-01
-1.331519361682618197e-01
-5.314663783556834442e-01
2.712727652511722209e-01
1.392193508144533798e+00
1.062734871027524619e+00
-3.005679309628229989e-02
4.179890766179744643e-01
2.349694766332696139e-01
1.222563899866758286e+00
1.751079241008747678e+00
1.962766108911996321e-01
2.167891941793788080e-01
-9.468131024136782203e-01
2.104578997530063278e-01
-4.074903711653872773e-01
2.360978690769963834e-02
5.497701498169999673e-02
-7.429719005600572690e-02
-3.211448474635910100e-01
-7.096021576138754339e-02
-5.780809780302235135e-01
-8.871544735584325769e-01
6.242465024725825096e-01
1.026129879183281246e-01
-5.036705610561978963e-01
-1.268096018387978585e+00
-1.641036102104857508e-01
1.348317012496488720e+00
-1.250795425149646700e+00
3.801987492335477670e-02
-1.054737294734196529e-01
-5.187227733025794318e-01
4.584854524025035793e+00
-1.673405289573351773e+00
-1.533756422924134721e+00
9.054746322937334835e-02
2.004712194687059412e-01
-2.170941726202610389e-01
-3.954418774349767740e-01
-1.223086344628646904e-01
4.854618226313826834e-02
-4.457641663693928891e+00
-4.543324987691366168e-02
3.244121535382668564e-01
6.128466242874044401e-01
-3.951459312122907463e-01
-6.128721741419906444e+00
7.376955758583952916e-01
1.796674668671383701e+00
-5.644014592615893833e-02
-2.121284770900821667e-02
-9.148659993424469727e-02
2.110637244172057336e+00
3.047751856562307626e+00
-3.585608156944052327e-01
-8.386370126055877616e-01
-4.310660477332573515e-01
9.712337283546741418e-01
3.290469144255692147e-01
3.637469461825414418e-01
-4.170966233983662841e-01
-3.360643363464623778e-01
3.586771999688245227e-01
-2.766308132045577350e-01
-6.269194272802829371e-01
-4.154275744995543640e-01
2.566139704442255143e-01
-1.084457136329271210e+00
-4.640388712642259605e+00
-3.589487686447829784e-01
2.948199272378195790e+00
1.245101370501353832e+00
-1.565232347549179837e+00
4.811832213327531527e-01
-8.002863425282218390e-01
-8.267899657077044662e-01
1.843376200447701396e-01
-3.360040308084408789e-01
-1.376579279214229734e+00
-1.753451384425475101e+00
1.279336956271977854e+00
8.932176360346222310e-01
8.234768941278336474e-02
2.956596856737590873e+00
-8.971415820599180913e-02
1.827502969242488506e-01
-5.260011327497485234e-02
3.551870005495900984e-02
2.045835183736595397e-01
3.976399288931989906e-01
-3.785145076731887825e-01
4.227163995639638405e-01
-4.801510730672516880e-01
1.139050921281725470e+00
1.766790538387516429e+00
2.232461598115079937e+00
2.352805166345391386e-01
2.400230762331308831e+00
1.984565883873423975e-01
-9.565837272733670460e-01
3.152063714275857187e+00
4.868540898582762733e-02
9.465450284233493938e-02
1.772910333507353053e+00
-2.762521773736734826e-02
-6.746300784390871774e-01
4.121539977450646930e+00
-1.979300993342071768e+00
-1.057236257766343668e+00
2.508075551486326216e-01
7.616870672176966339e-01
-1.420941835971707645e+00
-4.405709635531802615e-01
2.201309453374778347e+00
-4.502320722372046141e-02
-2.712617881588033075e-01
-1.711756233318759146e-02
1.529239055451629081e+00
-1.080724033532200722e-02
-2.663872548733299261e-01
1.389905213905875125e-01
-1.858316823059690814e-01
-3.622935546785002181e-01
-3.874065261255101866e-01
2.239889505474043752e+00
-4.949365869912798060e-02
-2.398659540563879145e-01
-4.686308785153626283e-03
-2.765659933428928074e-02
-4.058041650194248451e-01
1.791678428653944444e-01
2.778838742417757274e-02
-7.225185593582170163e-02
-5.282522932132591720e-01
-1.676451682829318557e-01
5.879187384949782075e-02
-3.283237573847956892e-01
-7.511540523463288155e-01
-2.672797145558998902e-02
-4.270450439351245603e-02
1.006275229346353495e+00
-1.687228766214325271e+00
-5.838631204889836113e+00
2.288407239359190104e+00
1.488206477277957164e-02
1.272780308585801934e-01
-4.990026086059952126e-01
-3.256748498344934073e-01
-2.166793350662036932e+00
3.149565777023466961e-01
-7.111231329538394430e-01
1.504755492270467565e+00
2.245805934336786991e-01
-1.390883208879368504e-01
4.072345000671987458e-01
-5.658185175188809035e-01
-2.725044212249069092e-02
-7.776861167157454041e-03
-1.824934342384078034e-01
-1.051684264471079433e-01
-1.715492625008494976e+00
-2.776854893175570993e-01
-1.990793984067103783e-01
8.869380741660612411e-02
3.678853309114188952e-01
1.693810081822879621e-01
4.798508457118625392e-01
-1.328963830818237879e+00
8.931126537144871980e-02
1.566497247252214509e+00
1.278523175082283414e-01
7.624926928913726698e-01
5.848365906464213504e-01
4.211602009333469121e-02
-2.149646778460961583e-01
2.615726129580212556e-01
-4.613201558894225451e-01
-5.389226961674624672e-01
-2.198944578544159423e-01
2.751565811647061280e-02
1.233787201531568768e-02
6.044451527544125735e-01
-1.021610933624500332e-02
-1.745001009216574417e+00
8.103922657806176266e-01
-3.987868597082172561e-01
2.323119779939122054e-01
3.528918615462915964e-01
-5.756061471503550742e-01
9.613811809849545642e-02
