-2.954050302505493164e-01
-1.557483077049255371e-01
2.978657782077789307e-01
-5.125297904014587402e-01
-5.721407532691955566e-01
-1.217357516288757324e-01
2.804118394851684570e-01
3.631650507450103760e-01
-2.371214032173156738e-01
1.537367329001426697e-02
8.108475804328918457e-02
-3.394267857074737549e-01
-7.354919910430908203e-01
-1.750680804252624512e-01
-5.727321505546569824e-01
-4.680078625679016113e-01
-5.376522541046142578e-01
-6.903826594352722168e-01
3.643212094902992249e-02
3.746958076953887939e-01
-7.971963286399841309e-02
0.000000000000000000e+00
-2.364252209663391113e-01
0.000000000000000000e+00
0.000000000000000000e+00
0.000000000000000000e+00
-1.625490933656692505e-01
-2.118703424930572510e-01
-3.596095368266105652e-02
-1.454649958759546280e-02
3.749081492424011230e-01
4.040783345699310303e-01
2.130659818649291992e-01
-2.920452058315277100e-01
-1.341688483953475952e-01
2.549361586570739746e-01
1.906577795743942261e-01
4.020748138427734375e-01
-4.960879981517791748e-01
-3.488183915615081787e-01
-3.592076301574707031e-01
2.629494071006774902e-01
1.179166436195373535e-01
-9.989115595817565918e-02
-2.984007000923156738e-01
2.789897322654724121e-01
4.014474153518676758e-02
-4.834604561328887939e-01
3.817324638366699219e-01
2.386656999588012695e-01
4.246890544891357422e-02
-8.191461116075515747e-02
2.648086547851562500e-01
-4.816498607397079468e-03
-2.756230235099792480e-01
-2.543228268623352051e-01
2.715967893600463867e-01
-4.034577608108520508e-01
-1.187998950481414795e-01
1.228186935186386108e-01
-2.001860439777374268e-01
-5.465810894966125488e-01
-1.832307279109954834e-01
-1.670251190662384033e-01
-3.268674314022064209e-01
-2.746837139129638672e-01
-2.131482660770416260e-01
-1.705223917961120605e-01
8.067995309829711914e-02
1.461058259010314941e-01
-4.746227264404296875e-01
-3.182333707809448242e-02
-3.185058236122131348e-01
-4.038161039352416992e-01
4.106361269950866699e-01
3.276338577270507812e-01
-8.037775754928588867e-02
-3.975565433502197266e-01
-2.801302671432495117e-01
1.415870189666748047e-01
3.236879110336303711e-01
-1.338416039943695068e-01
-2.523663640022277832e-01
1.690910458564758301e-01
2.418653368949890137e-01
-3.725403547286987305e-02
3.831458091735839844e-01
3.243420124053955078e-01
3.669472932815551758e-01
5.034947395324707031e-02
-5.245887637138366699e-01
3.650895357131958008e-01
3.612750768661499023e-01
-4.878494739532470703e-01
-2.271097302436828613e-01
-3.791399300098419189e-01
-3.341380655765533447e-01
-9.956440329551696777e-02
-5.566468238830566406e-01
-2.548189163208007812e-01
2.928841710090637207e-01
-2.044478356838226318e-01
1.042928919196128845e-01
1.777432858943939209e-01
-4.085164144635200500e-02
4.325940012931823730e-01
1.733549237251281738e-01
-2.630211114883422852e-01
4.266982078552246094e-01
-8.382587693631649017e-03
-5.368855595588684082e-01
4.470228552818298340e-01
3.547776937484741211e-01
-1.810487359762191772e-01
2.103489488363265991e-01
3.725655674934387207e-01
-3.796420395374298096e-01
6.267964839935302734e-02
-1.137753427028656006e-01
1.648995876312255859e-01
-5.415520668029785156e-01
1.283677071332931519e-01
-2.105526030063629150e-01
2.228600829839706421e-01
5.134571790695190430e-01
-4.573784768581390381e-02
3.625634908676147461e-01
-4.380590617656707764e-01
1.987095475196838379e-01
3.099398910999298096e-01
0.000000000000000000e+00
-1.680896966718137264e-03
-5.899682268500328064e-02
1.041325461119413376e-02
5.702218506485223770e-03
-1.570530980825424194e-02
-6.068613147363066673e-04
0.000000000000000000e+00
3.084479831159114838e-02
1.236042100936174393e-02
-1.063547730445861816e-01
-4.717046618461608887e-01
6.028009653091430664e-01
2.257596850395202637e-01
-6.595299839973449707e-01
-3.902168273925781250e-01
-4.101333618164062500e-01
-1.736918836832046509e-01
4.839456677436828613e-01
1.718359440565109253e-01
6.414628773927688599e-02
4.594310522079467773e-01
-3.081964850425720215e-01
-5.747516155242919922e-01
2.553049027919769287e-01
-2.482507377862930298e-01
-3.264497220516204834e-01
3.405187726020812988e-01
-3.567596971988677979e-01
1.799097806215286255e-01
-2.387431710958480835e-01
-3.116016089916229248e-01
-1.719484329223632812e-01
1.129171699285507202e-01
4.735642075538635254e-01
1.437460444867610931e-02
5.055087208747863770e-01
-2.089488804340362549e-01
-5.877600908279418945e-01
7.799130678176879883e-02
5.251386165618896484e-01
-2.825749516487121582e-01
5.866984724998474121e-01
-1.644584387540817261e-01
3.711763620376586914e-01
2.512697577476501465e-01
1.081878170371055603e-01
9.956476837396621704e-02
-2.505088746547698975e-01
3.596513345837593079e-02
-1.330835558474063873e-02
8.128330111503601074e-03
-8.135820738971233368e-03
-6.350779905915260315e-03
